4 100
the -0.0811 0.5145 0.0368 0.0544 -0.0662 0.2121 0.1636 -0.1011 0.0607 -0.1858 -0.1965 -0.0595 0.0703 -0.1013 0.3130 -0.1717 0.0847 -0.1222 0.1024 0.0753 -0.1384 0.0435 -0.0371 0.1932 -0.1226 -0.2227 -0.1530 -0.2890 0.2371 0.2699 0.2693 -0.1666 0.0240 0.1053 -0.1475 -0.3232 0.0236 -0.2056 0.2847 -0.2817 0.1197 0.0314 -0.1215 0.0782 -0.2850 -0.1316 -0.0844 0.1483 -0.2192 -0.0462 -0.2151 0.0582 0.0372 0.0127 -0.3074 -0.1582 -0.1393 0.0361 -0.2519 -0.0305 -0.1532 -0.0286 -0.0955 0.3037 0.5632 -0.1120 -0.0319 -0.2223 -0.2612 -0.2254 -0.1593 0.1807 0.1205 0.3695 -0.2652 -0.0490 -0.2556 0.0130 -0.0898 0.0322 0.0021 -0.2692 0.3129 0.0179 0.3913 0.5415 -0.0049 0.0884 0.1605 0.0878 0.0004 0.1465 0.1872 0.0521 -0.1492 -0.0882 0.1696 0.1894 -0.0866 0.1184
in 0.1245 0.4200 0.2936 0.0924 -0.0669 0.0252 0.1407 -0.0729 0.0680 -0.2951 -0.2720 0.0785 0.0780 0.0248 0.0427 -0.1497 0.1013 -0.0257 0.0364 0.2647 0.0330 0.1047 0.0382 0.0138 -0.0162 -0.0733 0.0960 -0.2090 0.0561 0.1030 0.2898 -0.1914 -0.0927 0.1237 -0.0023 -0.4792 0.0523 -0.0819 0.3551 -0.2274 0.3301 0.0547 -0.1707 0.2304 -0.2599 -0.1389 -0.0106 0.1921 -0.3615 0.0077 -0.2439 0.1056 -0.0010 -0.2522 -0.2321 -0.1604 -0.2652 -0.0134 -0.3000 0.1215 0.0737 0.0215 -0.1647 0.2799 0.5886 -0.0189 -0.1250 -0.2438 -0.1621 -0.3960 -0.1078 0.2162 -0.1173 0.6267 -0.0788 0.0086 -0.1317 0.1440 -0.2035 -0.0742 -0.0536 -0.2773 0.1026 0.0356 0.3384 0.4606 -0.1893 0.0142 0.2269 0.1136 0.0962 0.1648 0.1065 0.0051 -0.1777 -0.0971 0.3434 0.2423 -0.1432 -0.1808
of 0.0018 0.3950 0.0662 0.1279 -0.2606 0.3275 -0.0161 -0.1740 0.0530 -0.1168 -0.1781 0.0897 0.0423 -0.1886 0.2358 -0.1118 0.1510 -0.2601 0.0367 -0.0689 -0.1016 0.0333 0.0290 0.1104 -0.3067 -0.2721 -0.1113 -0.2921 0.4445 0.1993 0.2558 -0.1089 0.0121 0.0870 -0.2314 -0.2405 -0.0331 -0.5395 0.1571 -0.3647 0.1048 0.0985 -0.1880 -0.0555 -0.0523 -0.0162 -0.0134 0.0990 -0.1943 0.1087 -0.3270 0.0789 -0.0764 0.1340 -0.2139 -0.1241 -0.3107 -0.2037 -0.3198 0.0157 0.0148 -0.0511 -0.1739 0.4170 0.6791 -0.1775 -0.1529 -0.1850 -0.2302 -0.3126 -0.0604 0.2185 0.0143 0.5491 -0.1606 0.0136 -0.2309 0.1908 -0.2026 0.0611 -0.1822 -0.3973 0.2603 0.1247 0.4455 0.4626 -0.0074 -0.0384 0.1773 0.1086 0.1534 0.2286 0.1497 -0.0698 -0.0397 -0.0486 0.0400 0.1595 -0.0070 0.2451
a -0.1433 0.4563 0.0432 0.2349 -0.2987 0.0416 0.0030 -0.0698 -0.0150 -0.1932 -0.0465 -0.0910 0.2336 -0.1313 0.2681 -0.0743 0.1192 -0.0902 -0.1458 0.2554 0.0500 -0.0215 -0.2235 0.3174 -0.0591 -0.2207 -0.2203 -0.2378 0.0418 0.3202 0.2689 -0.2710 -0.0955 0.2005 -0.1985 -0.3306 -0.2077 -0.2333 0.1841 -0.2972 0.0294 -0.0136 -0.0701 0.1860 -0.1163 0.1043 0.0794 0.1794 -0.3520 0.0179 -0.3910 0.0755 0.0074 0.0377 -0.1803 -0.0884 -0.2182 0.0964 -0.1289 0.2162 -0.3919 -0.0599 -0.2586 0.0642 0.4901 0.0188 -0.1292 -0.3284 -0.0449 -0.2160 0.0986 0.3132 0.1201 0.3162 -0.2393 0.1444 -0.2775 0.2539 -0.0494 0.1743 -0.0795 -0.1996 0.2118 -0.2815 0.3230 0.4166 0.1315 0.2142 -0.1657 -0.0734 -0.0965 0.0446 0.1554 -0.0070 -0.0130 -0.3514 0.1540 0.2946 -0.3259 0.0810
